<?xml version="1.0"?>
<opencv_storage>
<cascade>
  <stageType>BOOST</stageType>
  <featureType>LBP</featureType>
  <height>32</height>
  <width>32</width>
  <stageParams>
    <boostType>GAB</boostType>
    <minHitRate>9.9500000476837158e-01</minHitRate>
    <maxFalseAlarm>5.0000000000000000e-01</maxFalseAlarm>
    <weightTrimRate>9.4999999999999996e-01</weightTrimRate>
    <maxDepth>1</maxDepth>
    <maxWeakCount>100</maxWeakCount></stageParams>
  <featureParams>
    <maxCatCount>256</maxCatCount>
    <featSize>1</featSize></featureParams>
  <stageNum>8</stageNum>
  <stages>
    <!-- stage 0 -->
    <_>
      <maxWeakCount>11</maxWeakCount>
      <stageThreshold>-1.8915927410125732e+00</stageThreshold>
      <weakClassifiers>
        <_>
          <internalNodes>
            0 -1 10 -42731521 536034287 469186551 1069490970 468155839
            -135529281 129724031 1069513599</internalNodes>
          <leafValues>
            -8.7943452596664429e-01 -5.6115108728408813e-01</leafValues></_>
        <_>
          <internalNodes>
            0 -1 32 1736290287 1004302055 400272177 938290062 816701902
            1047936948 951924660 527382318</internalNodes>
          <leafValues>
            -6.3042783737182617e-01 -7.6440937817096710e-02</leafValues></_>
        <_>
          <internalNodes>
            0 -1 0 867335990 -1287830509 1025285112 896456543 -680099865
            1045787244 -948168734 1938765515</internalNodes>
          <leafValues>
            -3.9007923007011414e-01 1.9734512269496918e-01</leafValues></_>
        <_>
          <internalNodes>
            0 -1 36 -713216150 275119134 2124394366 817848251 872357686
            1678834564 -1531021402 897158011</internalNodes>
          <leafValues>
            -4.5292434096336365e-01 1.8224845826625824e-01</leafValues></_>
        <_>
          <internalNodes>
            0 -1 47 -338696214 644797231 -598213054 -520960812
            1474188868 1432287445 -1564088780 -453732396</internalNodes>
          <leafValues>
            -4.9665185809135437e-01 1.8998666107654572e-01</leafValues></_>
        <_>
          <internalNodes>
            0 -1 9 36840482 1777832629 330526290 100021984 -1999455489
            -1580312126 7585008 542254197</internalNodes>
          <leafValues>
            -6.6588610410690308e-01 1.1569186300039291e-01</leafValues></_>
        <_>
          <internalNodes>
            0 -1 63 -422516742 1957550059 -873908241 1924009256
            1321211277 1951553972 -235065413 1846356586</internalNodes>
          <leafValues>
            -3.2761159539222717e-01 2.3793153464794159e-01</leafValues></_>
        <_>
          <internalNodes>
            0 -1 17 19377960 669240483 -1344393556 -1158239570 358972325
            1941126132 2027230608 574695396</internalNodes>
          <leafValues>
            -6.1239778995513916e-01 1.4065554738044739e-01</leafValues></_>
        <_>
          <internalNodes>
            0 -1 19 -1814961080 425495315 -1275962148 1094360708
            1397672696 1965971700 -2064388612 198823114</internalNodes>
          <leafValues>
            -3.7406370043754578e-01 2.0931349694728851e-01</leafValues></_>
        <_>
          <internalNodes>
            0 -1 51 1642464268 1958481836 2059673798 81825230 1909922141
            358625809 2120035601 966178226</internalNodes>
          <leafValues>
            -5.2984648942947388e-01 1.5252736210823059e-01</leafValues></_>
        <_>
          <internalNodes>
            0 -1 41 1858060014 773843646 -527044760 1279050944
            -751337965 1948781811 -184815088 1685086198</internalNodes>
          <leafValues>
            -5.7327711582183838e-01 1.2997260689735413e-01</leafValues></_></weakClassifiers></_>
    <!-- stage 1 -->
    <_>
      <maxWeakCount>12</maxWeakCount>
      <stageThreshold>-1.8328953981399536e+00</stageThreshold>
      <weakClassifiers>
        <_>
          <internalNodes>
            0 -1 16 -210393089 -1076371713 -11434593 -11330633
            1740889535 -87665 -201524225 -1</internalNodes>
          <leafValues>
            -8.4953045845031738e-01 -4.3049931526184082e-01</leafValues></_>
        <_>
          <internalNodes>
            0 -1 45 750093565 1033146250 -564254780 -311726558
            -1580013075 587542573 -1433617969 867936423</internalNodes>
          <leafValues>
            -5.8890450000762939e-01 -8.9207440614700317e-02</leafValues></_>
        <_>
          <internalNodes>
            0 -1 25 964517675 2145138535 -1752756710 80087590 1658924972
            1959311569 -1657200860 248849558</internalNodes>
          <leafValues>
            -4.6263208985328674e-01 1.4583832025527954e-01</leafValues></_>
        <_>
          <internalNodes>
            0 -1 54 -689455135 -1529516814 -523635533 -319282060
            1883912959 -442709557 -1045370085 92283962</internalNodes>
          <leafValues>
            -3.5514742136001587e-01 2.1469484269618988e-01</leafValues></_>
        <_>
          <internalNodes>
            0 -1 65 383289588 2061970162 -1840160290 780052830
            1508522845 1837123756 -134569156 1118187334</internalNodes>
          <leafValues>
            -4.5199862122535706e-01 1.9429269433021545e-01</leafValues></_>
        <_>
          <internalNodes>
            0 -1 1 -1827341532 612928656 923906176 534226930 1542803776
            1082913096 823529716 33067876</internalNodes>
          <leafValues>
            -5.0906646251678467e-01 1.6318152844905853e-01</leafValues></_>
        <_>
          <internalNodes>
            0 -1 29 -57201390 65394500 1250994432 -1296109314 1501452909
            209453178 1754243044 1146472419</internalNodes>
          <leafValues>
            -5.1766288280487061e-01 1.5829634666442871e-01</leafValues></_>
        <_>
          <internalNodes>
            0 -1 28 -409215239 1933080106 1023087924 -1175178688
            -440634114 -536051736 16120537 -1695121961</internalNodes>
          <leafValues>
            -2.7875250577926636e-01 3.1439590454101562e-01</leafValues></_>
        <_>
          <internalNodes>
            0 -1 62 -879695346 643240542 -494916334 1120141506 550002543
            1620481 973903338 1122620421</internalNodes>
          <leafValues>
            -4.5004564523696899e-01 1.9087852537631989e-01</leafValues></_>
        <_>
          <internalNodes>
            0 -1 38 1255483886 1297480477 1666764893 1735592906
            1172021759 -1958991026 588448570 -210130200</internalNodes>
          <leafValues>
            -3.0368757247924805e-01 2.9729750752449036e-01</leafValues></_>
        <_>
          <internalNodes>
            0 -1 22 -6862599 889803847 1025051529 2059406442 1922547214
            769198757 27277512 -2034462150</internalNodes>
          <leafValues>
            -3.0365717411041260e-01 2.8523600101470947e-01</leafValues></_>
        <_>
          <internalNodes>
            0 -1 37 1965686600 1363531226 -1763155055 14127352
            -1056134934 1751290855 -1063650180 886693380</internalNodes>
          <leafValues>
            -4.2099931836128235e-01 2.1462357044219971e-01</leafValues></_></weakClassifiers></_>
    <!-- stage 2 -->
    <_>
      <maxWeakCount>11</maxWeakCount>
      <stageThreshold>-1.7243031263351440e+00</stageThreshold>
      <weakClassifiers>
        <_>
          <internalNodes>
            0 -1 44 -6291457 -4472389 -787874817 -543222577 -41420097
            -75265893 -140533857 -2097153</internalNodes>
          <leafValues>
            -8.2795041799545288e-01 1.</leafValues></_>
        <_>
          <internalNodes>
            0 -1 15 -15339521 1463808511 476598 -1208481360 1224297407
            -74997277 1604938431 -1143511569</internalNodes>
          <leafValues>
            -4.9408304691314697e-01 7.9183086752891541e-02</leafValues></_>
        <_>
          <internalNodes>
            0 -1 42 -1312190284 1335186573 1091585838 369527528
            1378499005 1883783843 579837268 -1535030106</internalNodes>
          <leafValues>
            -4.0249419212341309e-01 1.8777939677238464e-01</leafValues></_>
        <_>
          <internalNodes>
            0 -1 53 1838069597 1440596190 24813195 176161122 717568373
            1906378765 -637500678 -1344881573</internalNodes>
          <leafValues>
            -3.0698642134666443e-01 2.8111729025840759e-01</leafValues></_>
        <_>
          <internalNodes>
            0 -1 58 -408761700 1406769869 -1856929530 -765452044
            860447374 227219840 -532282630 1670160547</internalNodes>
          <leafValues>
            -3.4330642223358154e-01 2.6952710747718811e-01</leafValues></_>
        <_>
          <internalNodes>
            0 -1 13 36757776 -679345400 -1591708270 -1478238047
            185701010 -88741375 855835288 552293124</internalNodes>
          <leafValues>
            -4.1808587312698364e-01 2.3909655213356018e-01</leafValues></_>
        <_>
          <internalNodes>
            0 -1 40 1858565311 -444477050 1241598233 2041086167
            -475548807 -1516240104 -263133112 -215733342</internalNodes>
          <leafValues>
            -2.9959577322006226e-01 3.2729607820510864e-01</leafValues></_>
        <_>
          <internalNodes>
            0 -1 48 2044225606 -564162167 -251055679 -1635166818
            1199590169 1639409706 -368856776 1620074778</internalNodes>
          <leafValues>
            -3.8846340775489807e-01 2.5743469595909119e-01</leafValues></_>
        <_>
          <internalNodes>
            0 -1 33 -243835570 -1296478746 -1034878554 1198822896
            1829528414 664506530 -636961667 -942570334</internalNodes>
          <leafValues>
            -3.4862199425697327e-01 2.8034517168998718e-01</leafValues></_>
        <_>
          <internalNodes>
            0 -1 46 648024444 461642121 269523011 2035714562 563226665
            -2083831480 -477386497 789022822</internalNodes>
          <leafValues>
            -4.1153055429458618e-01 2.4177280068397522e-01</leafValues></_>
        <_>
          <internalNodes>
            0 -1 61 1659549262 1724246418 -668514292 1616675114
            415241333 -1573856504 1980860848 1077318392</internalNodes>
          <leafValues>
            -5.0969374179840088e-01 2.0987504720687866e-01</leafValues></_></weakClassifiers></_>
    <!-- stage 3 -->
    <_>
      <maxWeakCount>12</maxWeakCount>
      <stageThreshold>-1.8552000522613525e+00</stageThreshold>
      <weakClassifiers>
        <_>
          <internalNodes>
            0 -1 30 -14155777 -642445233 1224819789 -582006713
            -1626633281 -737427317 -1123431433 -2109441</internalNodes>
          <leafValues>
            -8.3746808767318726e-01 1.</leafValues></_>
        <_>
          <internalNodes>
            0 -1 20 -679220737 -1048067773 1375928393 -711867567
            1528550023 -502609144 -1862016557 -676596001</internalNodes>
          <leafValues>
            -4.5519110560417175e-01 4.7825062274932861e-01</leafValues></_>
        <_>
          <internalNodes>
            0 -1 11 -656270209 70266871 -805355977 1971306495
            -1241618443 -610369567 -1484794439 -1367576997</internalNodes>
          <leafValues>
            -2.5528678297996521e-01 3.8532114028930664e-01</leafValues></_>
        <_>
          <internalNodes>
            0 -1 67 -151519381 -111395977 2146942574 1718861567
            1844786804 394051453 -145358977 -805830897</internalNodes>
          <leafValues>
            -1.8059666454792023e-01 5.5627864599227905e-01</leafValues></_>
        <_>
          <internalNodes>
            0 -1 2 -319015245 -553254915 -117510677 1308602029 947856606
            -327321913 -1228994586 181156769</internalNodes>
          <leafValues>
            -2.8607654571533203e-01 3.9380279183387756e-01</leafValues></_>
        <_>
          <internalNodes>
            0 -1 18 98822968 168743708 -2130544384 1686419733
            -1299450894 -2130706429 -1054883824 1676448304</internalNodes>
          <leafValues>
            -4.2560794949531555e-01 2.6661187410354614e-01</leafValues></_>
        <_>
          <internalNodes>
            0 -1 27 -1344539903 -1350815113 -1082204168 1525688298
            -901253444 629112822 -34570366 -2119553808</internalNodes>
          <leafValues>
            -3.3361703157424927e-01 3.7814819812774658e-01</leafValues></_>
        <_>
          <internalNodes>
            0 -1 57 -319780881 263122091 -285245779 -949662151
            1300115692 226058111 -134317133 -607015870</internalNodes>
          <leafValues>
            -2.6258257031440735e-01 4.6707329154014587e-01</leafValues></_>
        <_>
          <internalNodes>
            0 -1 24 -1550085641 1918849222 151810 -2138566016
            -1845379042 1778452489 1342251269 1925311410</internalNodes>
          <leafValues>
            -3.8993245363235474e-01 3.2660245895385742e-01</leafValues></_>
        <_>
          <internalNodes>
            0 -1 7 545333488 18546944 67142950 -317308592 1644407005
            587204736 -1576990342 151611788</internalNodes>
          <leafValues>
            -4.7087359428405762e-01 2.8371542692184448e-01</leafValues></_>
        <_>
          <internalNodes>
            0 -1 56 -410984165 124682094 -1342275691 -563462348
            -469905425 -1908932802 393544294 -614339565</internalNodes>
          <leafValues>
            -3.2099947333335876e-01 4.2637273669242859e-01</leafValues></_>
        <_>
          <internalNodes>
            0 -1 8 -2075894760 -1819737967 -720337750 305463733
            973768714 -1735863799 -1977044822 -1532493804</internalNodes>
          <leafValues>
            -4.2972543835639954e-01 3.1366953253746033e-01</leafValues></_></weakClassifiers></_>
    <!-- stage 4 -->
    <_>
      <maxWeakCount>10</maxWeakCount>
      <stageThreshold>-1.8558986186981201e+00</stageThreshold>
      <weakClassifiers>
        <_>
          <internalNodes>
            0 -1 37 -498602497 1527889987 17372045 -1693777834
            -1878226385 -217349948 -133987957 -3149077</internalNodes>
          <leafValues>
            -8.5336214303970337e-01 1.</leafValues></_>
        <_>
          <internalNodes>
            0 -1 21 -753415269 -720306159 -2121264811 -83652591
            -1743944565 -1568079727 -1039955829 -1084491253</internalNodes>
          <leafValues>
            -4.9549448490142822e-01 8.1108254194259644e-01</leafValues></_>
        <_>
          <internalNodes>
            0 -1 23 -649396637 1886803559 -10010661 -42946573
            -1258959933 838430325 1742664870 -1345589334</internalNodes>
          <leafValues>
            -2.5389775633811951e-01 5.8843892812728882e-01</leafValues></_>
        <_>
          <internalNodes>
            0 -1 50 -696343032 1086865810 1108398084 1377450003
            -1073065309 671220034 -1744750322 1737220841</internalNodes>
          <leafValues>
            -3.8624566793441772e-01 3.8134244084358215e-01</leafValues></_>
        <_>
          <internalNodes>
            0 -1 5 2063463205 1030462253 134118001 363114104 -1619591696
            886964157 -159506756 -703621906</internalNodes>
          <leafValues>
            -2.9298582673072815e-01 5.2030456066131592e-01</leafValues></_>
        <_>
          <internalNodes>
            0 -1 4 -880231116 -536871238 536558515 -1226720398
            1073646750 410509299 -1115782242 -1934523408</internalNodes>
          <leafValues>
            -3.3274695277214050e-01 4.7548037767410278e-01</leafValues></_>
        <_>
          <internalNodes>
            0 -1 69 1897645120 847872458 -2130624512 7938116 -1300028779
            -1702752127 570833082 823214762</internalNodes>
          <leafValues>
            -4.3966871500015259e-01 3.7646174430847168e-01</leafValues></_>
        <_>
          <internalNodes>
            0 -1 52 -369578217 1484221772 -35020924 1002434541
            -676025073 1414438711 2146808964 -728449217</internalNodes>
          <leafValues>
            -3.0029729008674622e-01 5.8962732553482056e-01</leafValues></_>
        <_>
          <internalNodes>
            0 -1 49 1402077964 1243906063 -515129216 -687767424
            -937424566 -1073545087 286479234 537167881</internalNodes>
          <leafValues>
            -4.9283447861671448e-01 3.8647887110710144e-01</leafValues></_>
        <_>
          <internalNodes>
            0 -1 59 -715602098 -469663741 -2147459002 1620149904
            134275386 2030174354 -2146858236 1099406315</internalNodes>
          <leafValues>
            -4.4601348042488098e-01 4.1214224696159363e-01</leafValues></_></weakClassifiers></_>
    <!-- stage 5 -->
    <_>
      <maxWeakCount>7</maxWeakCount>
      <stageThreshold>-1.7836681604385376e+00</stageThreshold>
      <weakClassifiers>
        <_>
          <internalNodes>
            0 -1 31 -1827991097 -771685375 196627 -587005933 -2130665330
            -788529136 -2013249271 -820262261</internalNodes>
          <leafValues>
            -8.7167221307754517e-01 1.</leafValues></_>
        <_>
          <internalNodes>
            0 -1 3 -803745317 -653197312 -2146434977 1363235072 25204873
            293699720 -1072659316 -1928680565</internalNodes>
          <leafValues>
            -6.1307477951049805e-01 8.8339716196060181e-01</leafValues></_>
        <_>
          <internalNodes>
            0 -1 39 -1770039878 -1116799182 2130487264 -1283543510
            -1491831970 375744501 -2013784592 -1359965138</internalNodes>
          <leafValues>
            -4.2608597874641418e-01 5.1828593015670776e-01</leafValues></_>
        <_>
          <internalNodes>
            0 -1 68 -349880762 -788781151 -1157726296 -213925903
            2105357746 1456815918 -1216545474 702033415</internalNodes>
          <leafValues>
            -4.4323286414146423e-01 5.6042110919952393e-01</leafValues></_>
        <_>
          <internalNodes>
            0 -1 35 -2121578218 1426620417 33554433 -2028973824 8405144
            -1577057664 1208025229 -2122315510</internalNodes>
          <leafValues>
            -4.4939064979553223e-01 5.6772929430007935e-01</leafValues></_>
        <_>
          <internalNodes>
            0 -1 12 572044285 -77459608 2138877817 1282356529 2010146382
            804662780 -411135280 -343736186</internalNodes>
          <leafValues>
            -4.0759313106536865e-01 6.3157808780670166e-01</leafValues></_>
        <_>
          <internalNodes>
            0 -1 14 1074044956 -921694175 1090617752 1224757329
            134217892 524481 973129856 19472792</internalNodes>
          <leafValues>
            -5.2064448595046997e-01 5.4443001747131348e-01</leafValues></_></weakClassifiers></_>
    <!-- stage 6 -->
    <_>
      <maxWeakCount>5</maxWeakCount>
      <stageThreshold>-1.8602156639099121e+00</stageThreshold>
      <weakClassifiers>
        <_>
          <internalNodes>
            0 -1 64 -2146410349 -788398000 -2113601517 285212704
            1610647552 128 1073782786 -1806728997</internalNodes>
          <leafValues>
            -9.1468083858489990e-01 1.</leafValues></_>
        <_>
          <internalNodes>
            0 -1 66 1158303883 1073741840 3 -1341325279 136 -2147483583
            -2147409908 -679247741</internalNodes>
          <leafValues>
            -7.8940629959106445e-01 1.</leafValues></_>
        <_>
          <internalNodes>
            0 -1 55 -989609833 -1879048192 0 1090520196 167776259
            268435595 16842754 1250365570</internalNodes>
          <leafValues>
            -4.9154579639434814e-01 9.5152831077575684e-01</leafValues></_>
        <_>
          <internalNodes>
            0 -1 6 488652297 1524444142 -151175328 197115622 491795109
            1113013110 -139156292 -1845276438</internalNodes>
          <leafValues>
            -4.1714096069335938e-01 8.8978719711303711e-01</leafValues></_>
        <_>
          <internalNodes>
            0 -1 43 1074589964 -788397888 513 537001984 -1056648064
            -2147483645 -2147450751 695425</internalNodes>
          <leafValues>
            -5.5436986684799194e-01 7.6401585340499878e-01</leafValues></_></weakClassifiers></_>
    <!-- stage 7 -->
    <_>
      <maxWeakCount>3</maxWeakCount>
      <stageThreshold>-9.4725364446640015e-01</stageThreshold>
      <weakClassifiers>
        <_>
          <internalNodes>
            0 -1 60 268451840 16777216 1073741824 0 1073742848 0 20482
            1900544</internalNodes>
          <leafValues>
            -9.8041373491287231e-01 1.</leafValues></_>
        <_>
          <internalNodes>
            0 -1 34 1090519040 -1073479680 16384 0 32776 0 134217736
            590476</internalNodes>
          <leafValues>
            -9.6683990955352783e-01 1.</leafValues></_>
        <_>
          <internalNodes>
            0 -1 26 32784 268500992 0 285229065 0 0 -2147483646 1081520</internalNodes>
          <leafValues>
            -9.4991862773895264e-01 1.</leafValues></_></weakClassifiers></_></stages>
  <features>
    <_>
      <rect>
        0 5 7 6</rect></_>
    <_>
      <rect>
        0 16 4 5</rect></_>
    <_>
      <rect>
        0 26 9 2</rect></_>
    <_>
      <rect>
        1 2 9 3</rect></_>
    <_>
      <rect>
        1 7 3 2</rect></_>
    <_>
      <rect>
        1 13 4 4</rect></_>
    <_>
      <rect>
        1 19 3 3</rect></_>
    <_>
      <rect>
        1 29 5 1</rect></_>
    <_>
      <rect>
        2 2 5 2</rect></_>
    <_>
      <rect>
        2 5 9 5</rect></_>
    <_>
      <rect>
        2 7 9 6</rect></_>
    <_>
      <rect>
        2 14 10 5</rect></_>
    <_>
      <rect>
        3 5 5 6</rect></_>
    <_>
      <rect>
        3 7 1 2</rect></_>
    <_>
      <rect>
        3 26 2 1</rect></_>
    <_>
      <rect>
        4 13 5 3</rect></_>
    <_>
      <rect>
        4 14 7 4</rect></_>
    <_>
      <rect>
        5 16 5 3</rect></_>
    <_>
      <rect>
        5 17 1 2</rect></_>
    <_>
      <rect>
        6 5 4 4</rect></_>
    <_>
      <rect>
        6 14 4 6</rect></_>
    <_>
      <rect>
        6 29 2 1</rect></_>
    <_>
      <rect>
        7 3 3 2</rect></_>
    <_>
      <rect>
        7 8 4 3</rect></_>
    <_>
      <rect>
        7 13 1 1</rect></_>
    <_>
      <rect>
        7 14 5 3</rect></_>
    <_>
      <rect>
        8 0 3 2</rect></_>
    <_>
      <rect>
        8 0 8 3</rect></_>
    <_>
      <rect>
        8 7 6 4</rect></_>
    <_>
      <rect>
        8 14 2 1</rect></_>
    <_>
      <rect>
        9 4 6 6</rect></_>
    <_>
      <rect>
        9 8 5 4</rect></_>
    <_>
      <rect>
        10 7 6 7</rect></_>
    <_>
      <rect>
        10 10 3 3</rect></_>
    <_>
      <rect>
        10 14 2 3</rect></_>
    <_>
      <rect>
        10 14 7 5</rect></_>
    <_>
      <rect>
        10 17 6 3</rect></_>
    <_>
      <rect>
        11 7 5 4</rect></_>
    <_>
      <rect>
        11 11 7 7</rect></_>
    <_>
      <rect>
        11 12 2 2</rect></_>
    <_>
      <rect>
        12 9 2 2</rect></_>
    <_>
      <rect>
        12 14 2 1</rect></_>
    <_>
      <rect>
        12 23 3 2</rect></_>
    <_>
      <rect>
        13 0 1 1</rect></_>
    <_>
      <rect>
        13 6 4 5</rect></_>
    <_>
      <rect>
        13 6 6 6</rect></_>
    <_>
      <rect>
        14 3 6 7</rect></_>
    <_>
      <rect>
        16 13 2 1</rect></_>
    <_>
      <rect>
        17 23 2 1</rect></_>
    <_>
      <rect>
        18 15 3 3</rect></_>
    <_>
      <rect>
        18 16 3 4</rect></_>
    <_>
      <rect>
        18 20 4 3</rect></_>
    <_>
      <rect>
        18 21 2 3</rect></_>
    <_>
      <rect>
        19 19 4 3</rect></_>
    <_>
      <rect>
        20 0 4 5</rect></_>
    <_>
      <rect>
        20 4 2 3</rect></_>
    <_>
      <rect>
        20 9 1 1</rect></_>
    <_>
      <rect>
        20 14 4 6</rect></_>
    <_>
      <rect>
        20 21 3 3</rect></_>
    <_>
      <rect>
        21 18 2 2</rect></_>
    <_>
      <rect>
        22 4 3 8</rect></_>
    <_>
      <rect>
        22 12 2 3</rect></_>
    <_>
      <rect>
        22 18 1 1</rect></_>
    <_>
      <rect>
        22 22 3 3</rect></_>
    <_>
      <rect>
        22 29 2 1</rect></_>
    <_>
      <rect>
        23 10 3 5</rect></_>
    <_>
      <rect>
        23 15 2 2</rect></_>
    <_>
      <rect>
        24 21 1 2</rect></_>
    <_>
      <rect>
        24 24 2 2</rect></_>
    <_>
      <rect>
        25 9 2 2</rect></_></features></cascade>
</opencv_storage>
